
#include <dsp.h>

#include "fdacoefs_bands.h"

// Band 1
const int BL1 = NUM_COEFFS;
const fractional B1[NUM_COEFFS] = {
        7,      7,      7,      7,      7,      7,      8,      8,      8,
        8,      9,      9,     10,     10,     10,     11,     12,     12,
       13,     13,     14,     15,     16,     16,     17,     18,     19,
       20,     21,     22,     23,     24,     25,     26,     28,     29,
       30,     31,     33,     34,     36,     37,     39,     40,     42,
       43,     45,     47,     48,     50,     52,     53,     55,     57,
       59,     61,     63,     64,     66,     68,     70,     72,     74,
       76,     78,     80,     82,     84,     86,     88,     90,     92,
       94,     96,     98,    100,    102,    104,    106,    108,    110,
      112,    114,    116,    118,    120,    122,    123,    125,    127,
      129,    130,    132,    134,    135,    137,    138,    140,    141,
      143,    144,    145,    147,    148,    149,    150,    151,    152,
      153,    154,    155,    156,    157,    157,    158,    159,    159,
      160,    160,    161,    161,    161,    161,    162,    162,    162,
      162,    162,    161,    161,    161,    161,    160,    160,    159,
      159,    158,    157,    157,    156,    155,    154,    153,    152,
      151,    150,    149,    148,    147,    145,    144,    143,    141,
      140,    138,    137,    135,    134,    132,    130,    129,    127,
      125,    123,    122,    120,    118,    116,    114,    112,    110,
      108,    106,    104,    102,    100,     98,     96,     94,     92,
       90,     88,     86,     84,     82,     80,     78,     76,     74,
       72,     70,     68,     66,     64,     63,     61,     59,     57,
       55,     53,     52,     50,     48,     47,     45,     43,     42,
       40,     39,     37,     36,     34,     33,     31,     30,     29,
       28,     26,     25,     24,     23,     22,     21,     20,     19,
       18,     17,     16,     16,     15,     14,     13,     13,     12,
       12,     11,     10,     10,     10,      9,      9,      8,      8,
        8,      8,      7,      7,      7,      7,      7,      7
};

// Band 2
const int BL2 = NUM_COEFFS;
const fractional B2[NUM_COEFFS] = {
      -12,    -12,    -12,    -12,    -12,    -12,    -13,    -13,    -13,
      -14,    -14,    -14,    -15,    -15,    -16,    -16,    -17,    -17,
      -18,    -19,    -19,    -20,    -20,    -21,    -22,    -22,    -23,
      -23,    -24,    -25,    -25,    -25,    -26,    -26,    -27,    -27,
      -27,    -27,    -27,    -27,    -27,    -27,    -27,    -27,    -26,
      -26,    -25,    -25,    -24,    -23,    -22,    -21,    -20,    -19,
      -17,    -16,    -14,    -12,    -10,     -8,     -6,     -4,     -2,
        1,      4,      6,      9,     12,     15,     19,     22,     25,
       29,     33,     36,     40,     44,     48,     52,     56,     60,
       64,     69,     73,     77,     82,     86,     91,     95,    100,
      104,    108,    113,    117,    121,    126,    130,    134,    138,
      142,    146,    150,    154,    158,    161,    165,    168,    171,
      174,    177,    180,    182,    185,    187,    189,    191,    193,
      195,    196,    197,    198,    199,    200,    200,    201,    201,
      201,    200,    200,    199,    198,    197,    196,    195,    193,
      191,    189,    187,    185,    182,    180,    177,    174,    171,
      168,    165,    161,    158,    154,    150,    146,    142,    138,
      134,    130,    126,    121,    117,    113,    108,    104,    100,
       95,     91,     86,     82,     77,     73,     69,     64,     60,
       56,     52,     48,     44,     40,     36,     33,     29,     25,
       22,     19,     15,     12,      9,      6,      4,      1,     -2,
       -4,     -6,     -8,    -10,    -12,    -14,    -16,    -17,    -19,
      -20,    -21,    -22,    -23,    -24,    -25,    -25,    -26,    -26,
      -27,    -27,    -27,    -27,    -27,    -27,    -27,    -27,    -27,
      -27,    -26,    -26,    -25,    -25,    -25,    -24,    -23,    -23,
      -22,    -22,    -21,    -20,    -20,    -19,    -19,    -18,    -17,
      -17,    -16,    -16,    -15,    -15,    -14,    -14,    -14,    -13,
      -13,    -13,    -12,    -12,    -12,    -12,    -12,    -12
};

// Band 3
const int BL3 = NUM_COEFFS;
const fractional B3[NUM_COEFFS] = {
        0,      0,      0,      0,      0,      0,      0,      0,      0,
        0,      0,      1,      1,      2,      2,      3,      4,      5,
        6,      7,      8,      9,     11,     12,     14,     15,     17,
       19,     20,     22,     24,     26,     27,     29,     30,     31,
       32,     33,     34,     34,     33,     33,     32,     30,     28,
       25,     22,     18,     13,      8,      2,     -5,    -12,    -20,
      -29,    -39,    -49,    -59,    -71,    -83,    -95,   -108,   -121,
     -135,   -148,   -162,   -176,   -190,   -204,   -217,   -230,   -242,
     -254,   -265,   -276,   -285,   -293,   -300,   -306,   -311,   -313,
     -315,   -314,   -312,   -308,   -303,   -295,   -286,   -274,   -261,
     -246,   -229,   -210,   -189,   -167,   -143,   -118,    -91,    -63,
      -33,     -3,     28,     60,     92,    125,    158,    191,    224,
      256,    288,    319,    349,    377,    405,    431,    455,    478,
      498,    516,    533,    547,    558,    567,    574,    578,    579,
      578,    574,    567,    558,    547,    533,    516,    498,    478,
      455,    431,    405,    377,    349,    319,    288,    256,    224,
      191,    158,    125,     92,     60,     28,     -3,    -33,    -63,
      -91,   -118,   -143,   -167,   -189,   -210,   -229,   -246,   -261,
     -274,   -286,   -295,   -303,   -308,   -312,   -314,   -315,   -313,
     -311,   -306,   -300,   -293,   -285,   -276,   -265,   -254,   -242,
     -230,   -217,   -204,   -190,   -176,   -162,   -148,   -135,   -121,
     -108,    -95,    -83,    -71,    -59,    -49,    -39,    -29,    -20,
      -12,     -5,      2,      8,     13,     18,     22,     25,     28,
       30,     32,     33,     33,     34,     34,     33,     32,     31,
       30,     29,     27,     26,     24,     22,     20,     19,     17,
       15,     14,     12,     11,      9,      8,      7,      6,      5,
        4,      3,      2,      2,      1,      1,      0,      0,      0,
        0,      0,      0,      0,      0,      0,      0,      0
};

// Band 4
const int BL4 = NUM_COEFFS;
const fractional B4[NUM_COEFFS] = {
        7,      9,     10,     12,     13,     14,     15,     15,     15,
       14,     13,     11,      9,      7,      4,      1,     -2,     -5,
       -8,    -11,    -13,    -15,    -16,    -17,    -17,    -16,    -14,
      -12,    -10,     -7,     -5,     -2,      0,      1,      2,      1,
       -2,     -5,    -10,    -17,    -25,    -33,    -42,    -52,    -61,
      -69,    -75,    -80,    -82,    -81,    -76,    -69,    -58,    -43,
      -26,     -6,     16,     39,     62,     85,    105,    124,    138,
      149,    155,    156,    152,    143,    130,    113,     94,     73,
       52,     33,     15,      2,     -6,     -9,     -5,      6,     23,
       47,     75,    107,    140,    174,    204,    229,    247,    255,
      251,    233,    200,    152,     88,     10,    -81,   -184,   -294,
     -409,   -525,   -637,   -740,   -831,   -905,   -958,   -986,   -987,
     -959,   -901,   -813,   -697,   -554,   -389,   -205,     -8,    197,
      404,    605,    796,    969,   1119,   1241,   1332,   1387,   1406,
     1387,   1332,   1241,   1119,    969,    796,    605,    404,    197,
       -8,   -205,   -389,   -554,   -697,   -813,   -901,   -959,   -987,
     -986,   -958,   -905,   -831,   -740,   -637,   -525,   -409,   -294,
     -184,    -81,     10,     88,    152,    200,    233,    251,    255,
      247,    229,    204,    174,    140,    107,     75,     47,     23,
        6,     -5,     -9,     -6,      2,     15,     33,     52,     73,
       94,    113,    130,    143,    152,    156,    155,    149,    138,
      124,    105,     85,     62,     39,     16,     -6,    -26,    -43,
      -58,    -69,    -76,    -81,    -82,    -80,    -75,    -69,    -61,
      -52,    -42,    -33,    -25,    -17,    -10,     -5,     -2,      1,
        2,      1,      0,     -2,     -5,     -7,    -10,    -12,    -14,
      -16,    -17,    -17,    -16,    -15,    -13,    -11,     -8,     -5,
       -2,      1,      4,      7,      9,     11,     13,     14,     15,
       15,     15,     14,     13,     12,     10,      9,      7
};

// Band 5
const int BL5 = NUM_COEFFS;
const fractional B5[NUM_COEFFS] = {
        6,      2,     -3,     -8,    -12,    -14,    -14,    -11,     -7,
       -2,      2,      4,      4,      1,     -2,     -5,     -5,     -2,
        4,     12,     21,     27,     29,     26,     17,      5,     -7,
      -17,    -22,    -21,    -15,     -7,      0,      1,     -4,    -17,
      -32,    -46,    -54,    -50,    -35,    -10,     21,     48,     67,
       72,     63,     44,     21,      3,     -3,      5,     24,     48,
       67,     71,     53,     13,    -41,    -99,   -144,   -167,   -159,
     -123,    -69,    -12,     32,     50,     40,      8,    -30,    -56,
      -53,    -13,     61,    153,    240,    295,    300,    247,    147,
       22,    -98,   -182,   -213,   -187,   -121,    -45,      6,      5,
      -60,   -177,   -315,   -429,   -475,   -421,   -264,    -28,    236,
      467,    610,    631,    532,    351,    152,      7,    -25,     76,
      286,    532,    715,    732,    508,     28,   -655,  -1420,  -2099,
    -2519,  -2539,  -2093,  -1210,    -20,   1274,   2434,   3235,   3521,
     3235,   2434,   1274,    -20,  -1210,  -2093,  -2539,  -2519,  -2099,
    -1420,   -655,     28,    508,    732,    715,    532,    286,     76,
      -25,      7,    152,    351,    532,    631,    610,    467,    236,
      -28,   -264,   -421,   -475,   -429,   -315,   -177,    -60,      5,
        6,    -45,   -121,   -187,   -213,   -182,    -98,     22,    147,
      247,    300,    295,    240,    153,     61,    -13,    -53,    -56,
      -30,      8,     40,     50,     32,    -12,    -69,   -123,   -159,
     -167,   -144,    -99,    -41,     13,     53,     71,     67,     48,
       24,      5,     -3,      3,     21,     44,     63,     72,     67,
       48,     21,    -10,    -35,    -50,    -54,    -46,    -32,    -17,
       -4,      1,      0,     -7,    -15,    -21,    -22,    -17,     -7,
        5,     17,     26,     29,     27,     21,     12,      4,     -2,
       -5,     -5,     -2,      1,      4,      4,      2,     -2,     -7,
      -11,    -14,    -14,    -12,     -8,     -3,      2,      6
};

// Band 6
const int BL6 = NUM_COEFFS;
const fractional B6[NUM_COEFFS] = {
       -1,      0,     -5,     -3,      9,     14,      6,     -4,     -2,
        3,     -4,    -16,    -13,      4,     12,      5,      0,     11,
       19,      3,    -20,    -20,     -3,     -1,    -15,    -12,     19,
       38,     19,     -8,     -4,     11,     -8,    -46,    -43,      4,
       31,     12,     -1,     33,     60,     18,    -50,    -56,    -11,
       -5,    -47,    -42,     42,    102,     57,    -14,     -4,     37,
      -11,   -115,   -120,     -6,     68,     23,     -9,     78,    157,
       66,   -102,   -129,    -29,    -14,   -120,   -122,     72,    227,
      142,    -16,      5,    105,      2,   -246,   -287,    -46,    128,
       36,    -38,    161,    365,    192,   -183,   -271,    -64,    -32,
     -285,   -326,     99,    486,    341,     -6,     40,    289,     74,
     -539,   -712,   -183,    251,     46,   -150,    366,    983,    632,
     -377,   -705,   -167,    -79,   -926,  -1225,    115,   1643,   1363,
       76,    290,   1734,    883,  -3451,  -6586,  -3202,   4746,   8978,
     4746,  -3202,  -6586,  -3451,    883,   1734,    290,     76,   1363,
     1643,    115,  -1225,   -926,    -79,   -167,   -705,   -377,    632,
      983,    366,   -150,     46,    251,   -183,   -712,   -539,     74,
      289,     40,     -6,    341,    486,     99,   -326,   -285,    -32,
      -64,   -271,   -183,    192,    365,    161,    -38,     36,    128,
      -46,   -287,   -246,      2,    105,      5,    -16,    142,    227,
       72,   -122,   -120,    -14,    -29,   -129,   -102,     66,    157,
       78,     -9,     23,     68,     -6,   -120,   -115,    -11,     37,
       -4,    -14,     57,    102,     42,    -42,    -47,     -5,    -11,
      -56,    -50,     18,     60,     33,     -1,     12,     31,      4,
      -43,    -46,     -8,     11,     -4,     -8,     19,     38,     19,
      -12,    -15,     -1,     -3,    -20,    -20,      3,     19,     11,
        0,      5,     12,      4,    -13,    -16,     -4,      3,     -2,
       -4,      6,     14,      9,     -3,     -5,      0,     -1
};

// Band 7
const int BL7 = NUM_COEFFS;
const fractional B7[NUM_COEFFS] = {
        1,    -11,      9,      4,     -4,     -2,     -6,     15,     -5,
       -3,     -5,      4,     13,    -15,      1,     -5,     16,     -1,
      -18,      7,     -1,     21,    -23,     -6,     11,      6,     10,
      -38,     19,      7,     11,    -16,    -29,     44,     -7,      9,
      -44,     13,     44,    -25,     -1,    -48,     67,      4,    -32,
      -15,    -13,     93,    -61,    -14,    -21,     50,     52,   -109,
       27,    -14,    101,    -52,    -88,     67,      7,     92,   -163,
       17,     71,     27,      4,   -189,    159,     16,     33,   -123,
      -71,    234,    -81,     15,   -202,    154,    151,   -159,    -16,
     -151,    352,    -94,   -143,    -41,     41,    351,   -376,      3,
      -40,    280,     63,   -483,    226,    -12,    401,   -418,   -241,
      384,     27,    251,   -811,    353,    304,     51,   -200,   -749,
     1051,   -124,     42,   -811,     72,   1383,   -888,      5,  -1282,
     1897,    599,  -1918,    -37,  -1057,   6559,  -5678,  -5633,  13043,
    -5633,  -5678,   6559,  -1057,    -37,  -1918,    599,   1897,  -1282,
        5,   -888,   1383,     72,   -811,     42,   -124,   1051,   -749,
     -200,     51,    304,    353,   -811,    251,     27,    384,   -241,
     -418,    401,    -12,    226,   -483,     63,    280,    -40,      3,
     -376,    351,     41,    -41,   -143,    -94,    352,   -151,    -16,
     -159,    151,    154,   -202,     15,    -81,    234,    -71,   -123,
       33,     16,    159,   -189,      4,     27,     71,     17,   -163,
       92,      7,     67,    -88,    -52,    101,    -14,     27,   -109,
       52,     50,    -21,    -14,    -61,     93,    -13,    -15,    -32,
        4,     67,    -48,     -1,    -25,     44,     13,    -44,      9,
       -7,     44,    -29,    -16,     11,      7,     19,    -38,     10,
        6,     11,     -6,    -23,     21,     -1,      7,    -18,     -1,
       16,     -5,      1,    -15,     13,      4,     -5,     -3,     -5,
       15,     -6,     -2,     -4,      4,      9,    -11,      1
};

const fractional* BANDS[] = {B1, B2, B3, B4, B5, B6, B7};
